{"input": [981551, 768646, 28161, -872577, -658447, 159390, 973104, 209987, -6088, -428717, -512849, -795591, 540723, 754400, -878869, -58061, -737826, 450466, -524084, 220756, 407392, -683945, 39118, 102177, -167848, -567262, 120255, 934601, -968442, 594126, -152362, -997587, -113095, -750628, -985958, -692299, 532849, 665373, 81279, 962800, -348372, -256365, -44259, 321380, -807022, 689320, 595663, -691325, 978113, -141448, -42748, 731110, 47377, -357932, 234277, 982077, -596978, -908989, 768173, 625174, 719663, -267150, -122891, -619608, -967009, -54455, -723951, 677596, -183379, -741914, 146991, -792985, -881452, -854280, -726018, -551402, 200798, 235410, 980456, -115137, -3204, 834144, 202993, 118510, 484604, 97189, 255956, -237427, -326790, 166912, 588193, -194113, 832291, 68536, -996756, 86462, 76102, 916365, -950218, -79716, -874615, 489339, 282681, 500025, -655393, 857707, 986563, 396431, 543998, 175824, 819695, 66937, 668772, 682299, 265698, -545313, -11537, -476283, 573281, -909906, 21137, -107984, -336687, 397284, 12780, 492372, 214126, -745413, -648582, 124170, -97253, 492928, -536216, -746664, 738895, -282837, -932340, -465484, -800723, 222775, 392232, 651884, 982819, -652006, -413272, 23480, -628178, 959029, 985929, 332934, -897202, 285225, -646060, -631829, -441477, -80403, -637761, -377511, 716340, -83884, 406431, -104757, -907618, 749158, -987269, -310392, -457071, -907998, -629277, -348458, 294425, -390140, -220045, -568443, -228710, 417344, 735370, -159476, -119414, -458491, 221713, 438369, -613803, 503740, 522847, 50734, 359843, -697764, -910578, 24532, 801868, 453662, -397346, -134677, 289577, -475094, 591178, -812704, -220164, 51026, 269708, -530819, -379054, -143412, 725869, 224106, -397648, -379219, -874678, 22386, 558225, -399005, -273355, 494167, 191379, 699794, 883541, -340356, 158397, 370490, -306252, 828895, 765479, -46221, -644087, -634883, 774595, -812661, 179959, 506327, -609101, -798925, -890646, 536767, 118639, -134907, 251571, -198412, 39958, 54318, 550172, 145475, 480529, 271898, -464435, -626577, -883454, -106393, 448486, 519866, 845076, 662379, 579532, 475467, 813211, 197816, 734947, -719959, -795799, -912285, -860982, -518568, -255094, 490909, 427568, -382334, -202668, 52740, 2365, -894094, -553830, 988117, 306074, -330858, -700808, 535486, -304348, 736869, 364982, 523608, -849800, 645000, 273555, 505609, -66718, -707934, 383625, -726662, -281351, 441526, 497602, 982145, -683330, 315887, -973642, 958874, 98366, -51004, 231647, 748001, 628689, -969954, 986415, -470458, 423830, -549925, -835758, 792672, 736523, -238678, 951543, 974540, 388466, -384907, -367026, 466204, -259870, -749271, 778262, -237415, -324121, -848098, 240034, 22356, -491622, 929836, 820792, 358110, 565832, 587008, -80425, -375814, 628457, 487548, 705441, 528088, -836413, 853587, -816343, 713338, -180197, 517390, -90769, -864948, -98446, 118268, -485157, -304977, 64616, 508863, 573452, -419617, 52324, 691829, -263125, -91310, -309085, 77305, -902151, 557202, -532728, -939637, 115668, 243808, -846706, -604361, 712490, 507733, -454072, 211021, 525209, 823771, 732963, -422696, 887092, -768364, 177353, -989692, -598313, -977708, 986530, 262948, -58001, 537802, -911521, -31838, 413203, -170621, -365346, 439918, -163665, 614100, 5296, 61543, -503858, 530652, 674024, -627344, -167969, -103416, -251717, -609740, -627390, -246550, 726669, 168222, -104966, 94187, 699930, 204732, -760318, -854395, -451182, -779774, 381743, 948515, -389117, 624277, 78146, 192362, -494303, -118893, 508266, 800588, -856892, -911503, -692590, 558491, 871361, -900692, 676591, -90707, -525506, -992107, 209057, -546523, -411258, 524166, -918977, -945207, -821858, -668687, -524092, -345857, 397752, 362809, 879499, -563553, -924900, 212094, -891180, -342258, -918535, -403723, 473858, -962245, -461744, 644588, -313573, -756792, -551267, 767410, 388530, 263051, 558498, 415686, 479722, 191411, -467910, -388974, -777939, 897464, -182381, -643595, -734102, 930055, 176923, -821647, -943153, -790868, 936532, 590214, 386153, 890992, 232862, 623877, -814728, 838369, -530375, -560149, 857617, -189532, -500416, -830440, -221078, 80555, -764324, -809781, 822196, -773826, 162596, 16687, -234123, 102461, 281311, -594424, -483663, -229985, -547015, 608696, 851409, -574097, -920168, -598575, -615783, 624095, 868870, -937398, -93446, 824130, -820727, 807718, -287523, 231110, -871683, 678157, -590757, -783742, 11329, -525759, -902829, -83248, -588054, -543611, -759805, 422583, 276550, 844541, -790081, -959596, -857734, -508242, -647997, -103501, 432349, -629720, -413045, 4039, -447922, -129, -556802, -777301, -782424, 142709, 824945, -798676, -811871, 294002, -409046, -921626, 75414, -117854, 980124, -628656, -709397, -315140, -844538, 572627, 711008, 139147, 532021, 994541, 420315, -836445, -774838, -59195, -769145, -1503, -86583, 173707, -495603, 875561, -985085, -776715, 583547, 568848, 936747, 713397, 826612, -467534, -983326, -89225, 434049, 848745, 395061, -904027, -321525, 766460, 191326, 128939, -409466, 594924, 142740, 175643, -718624, -549761, -831208, 643738, 640244, 32709, -148546, 722235, -597671, 308475, 853124, -413868, -112172, -494471, -818810, -408696, -352699, -817821, -751605, -664644, -386306, -100369, 965216, 582556, -545051, 187515, 883473, -773593, 645653, 912137, 180409, -532388, 839802, 376429, -722978, -848999, -196961, -994660, 118086, 362844, 551876, -840026, -950049, 954293, 709513, 326371, -236381, 969235, -257253, -511111, -326841, -417099, 471005, 832114, 738307, 266821, -46924, 789515, 500276, -456864, 646813, -671457, 988211, 166635, -518554, 457830, -687825, -742422, -598555, -422687, 821228, 857814, 438131, -486305, -996341, -368029, -806741, -585115, 427515, -227789, -94501, -95061, -481488, 858869, -741259, 102500, 163958, 108299, 548418, -231835, -730506, -670496, -720720, 295051, -746709, 890483, -451505, 207499, -471700, 807578, 841633, 888628, -758149, -250648, -418985, 203136, 339546, -284432, -204055, 128422, 933928, 579333, 478465, 2270, 87140, 526410, 314604, 67434, -657387, 962375, 846258, 250617, 936444, -286448, -322364, -684840, 454564, -680217, -787468, -818455, -690275, -942108, 809095, -889148, -443776, -748508, 570129, 824242, 487131, 256289, -171191, 310786, 239554, -112416, -360836, 467026, 529426, 840501, -685446, 626427, 138640, 427678, -9258, -274949, 534385, -343097, -444523, 798050, -518591, -520737, -248906, -478948, -538883, -851993, -906959, 259341, 944642, 493870, 67594, -316980, 78061, 620687, -142641, 819789, -990434, 283266, -792970, 368098, -267319, -49236, -627150, -534401, 999895, 375058, -435012, -125774, 254351, -869882, 447111, 145564, 556775, 84435, -125932, -384268, -82723, 1477, -17850, 564636, 827592, -162575, -537014, -275914, 672673, 947164, 651563, 423990, 798804, -874097, -521947, 968739, 301561, 283880, -388467, 156359, 683023, -904243, 806308, 180341, -607638, 681450, -165008, -900717, -406264, -50439, 64410, -643135, 678900, -167678, 903820, -379391, 264683, 509939, 791481, -813440, -485, -394973, 98615, 30473, -743673, -398008, -960818, -998704, 795940, -285969, -942979, 716502, 159795, 367671, 568487, 185092, 822993, -661351, 61216, 15500, -332134, 10522, -645628, -243048, 437826, 621806, 448625, -512132, 666527, -680672, 830730, -815293, -515808, 381034, 674329, 496317, -882356, 682687, -336831, -615349, -984688, -242346, -88614, -656247, 94472, 678215, -568979, 521771, 675492, -245628, 613046, 109420, 497782, -705722, -687047, -422628, 831241, -984932, 632331, -256843, 275586, -639629, -46187, -754450, -499139, 556625, -616781, 595851, 667238, 443983, -868229, -482535, 830839, -916966, -291294, -347238, -903963, -984769, 493304, 107794, -837164, -172093, -420421, -276247, -104576, 316772, -820953, 675532, -980675, 340146, -633031, 554397, 776283, -151213, -938586, -709625, -758455, -781115, -891200, 573731, -380248, 814028, 286781, 901293, 762080, 124719, -629087, -357338, -362950, 928148, 263054, 412063, -796532, 621078, 66317, 786928, -613414, -275401, -457536, 733552, -68080, -339886, -703532, -721963, 407251, 614661, 877579, 249146, -430017, -122499, -125793, 697351, 989728, -239978, 777928, 299290, 51840, -326441, -432148, 732542, -117959, 983840, 322714, -351282, -371765, -297663, -928697, -121209, -413158, 787935, 387598, -273527, -403009, -884794, -284300, 641165, 579545, 799463, -399972, -468728, -345724, -16659, -23854, -196720, 696193, 87170, -736865, -586759, -948255, -635382, 533283, 272134, 147230, 261952, 392402, -998623, -963449, -794313, 240157, 252637, -18426, 146967, -798108, -40030, -832697, 618347], "input_dim": [4, 16, 16], "conv_weight": [-582736, 751923, 144361, 542874, 716290, -726179, -341299, -320396, 585306, -498799, -971334, -39887, -455382, -286189, 810441, 446896, 964711, -614070, 942405, 205823, -591066, 277095, 289096, -807740, 681611, -962282, -605604, 643060, -942507, -816909, 61714, 494784, 976352, 824846, 710768, -50633, 612718, -387561, -26387, 801576, -811895, -766244, 496151, -341219, -635956, -70207, -536835, 361487, 321510, 114052, 18707, 725036, 632105, 985745, -991052, 316791, 168304, 704000, 462429, 77461, -645642, 710679, -220713, -11373, 384500, 954293, -447856, -972297, -628658, -974657, 176451, -883330, 266346, -240270, -355715, 128221, -210061, -876245, 715628, 625942, 588890, 844883, -583430, 414233, -925035, -13126, 318354, -59268, 714402, -54011, -50687, -489643, -138047, -210956, 714880, 411810, -767718, -759114, -91890, 159178, -4927, -322201, 606020, -146833, 626448, 272187, -54126, -493267, -638069, -416828, 208535, -225033, 175050, -210409, 224755, -166020, 948138, 785985, 81389, 314800, -251024, 148812, -630767, 146039, 943680, 200843, 386974, 333842, -755717, 431346, -615496, -273473, 957621, -938920, 673279, -182456, -115610, 694385, 171566, -633654, -857689, 709982, -192739, -669693], "conv_dim": [4, 3, 3, 4], "output": [871718060032, -3099244888064, -183462363136, 1925105844224, -2488373084160, -2035851460608, 1081652936704, 2507254267904, -4057053528064, 3072560463872, -3870028464128, -197717114880, 1348644896768, 874929258496, -2272110313472, 1525841264640, -1896370798592, 388058644480, 101984395264, 3394503704576, -1727113068544, 1017477857280, 1536539492352, -2115254353920, 2473040805888, -726184493056, -921580339200, -19884496896, 2565590220800, -1186012856320, -1828376543232, -368779689984, -1762803843072, 1865140666368, 2591105220608, -2316572557312, -1791625920512, -967472709632, -911337586688, 719024422912, 2542786838528, -323735519232, 1563663532032, -905920380928, -3872654360576, 1654846128128, -539314913280, 266306781184, 1776340172800, -2829783400448, 535504191488, -4824218206208, 4182246424576, 2846229266432, -3090359517184, 3427988930560, -538783350784, -1490229264384, -1599136595968, -2516480163840, 1785298550784, -3351929159680, -2159528902656, 2065176723456, -56246693888, 1817909657600, -4131954098176, 824685166592, 694171860992, -642339635200, 1098929799168, 564650835968, -47299907584, 3166100520960, 898832400384, 1289267445760, -437603336192, -4096727449600, 2837920874496, -289941946368, -1269550546944, -457275834368, 408716378112, -992074661888, 665002967040, -917349203968, -917460090880, -4324835721216, -195078684672, 719730966528, 314274381824, 627003097088, -866914009088, 3070941724672, -630300540928, 606879023104, 2730361618432, 2181300879360, -1773108592640, -515061284864, -836805001216, -57673117696, -975790669824, -808943419392, 451836149760, 360558493696, 912242311168, 725490008064, 1598104535040, -5708786434048, -226828009472, 3849780985856, -346166329344, 73581928448, 3152736944128, 85316198400, -1683523239936, 1453393838080, 1836439044096, -1864713109504, 2245764841472, -3200701431808, -888931352576, 492549373952, 1276862136320, -3281374937088, -112048275456, 1056449691648, 1553384341504, -897612840960, 3380373094400, -4084871462912, 480959135744, 244603502592, -152406294528, 1578890952704, -503596187648, 1093190287360, -1456016719872, 1419952914432, -1835461902336, 797520101376, -168840527872, -3874523447296, -2465524875264, -279255449600, -238614495232, -1247982911488, -551810498560, -1202065768448, -581362319360, -451537403904, -939850072064, 1129729884160, 463243771904, -2662486507520, -3154926108672, 2478337163264, 345059229696, -700761505792, -731853160448, 1832785936384, -164961009664, 3933605724160, -1203004637184, -1470028709888, 399906078720, 1189938331648, -2947113025536, 3403186700288, 2115078193152, -301764575232, 10301353984, -1437926031360, 293392515072, 963353640960, 884717453312, -1023083741184, -4286416420864, 1460944502784, -2735292547072, 2833070424064, -4621730316288, -2246861389824, -160976093184, 3154632507392, -758603710464, 493165772800, -4023728996352, 3445014659072, 600448106496, 810553311232, 1027781296128, -3300358356992, -1428174012416, 1563552907264, 1897704849408, -1141600681984, 817904943104, 1858991161344, -539645509632, 447824363520, 78267006976, -6401808662528, 3085028556800, 1255210352640, 2051490185216, 1744714858496, -2490380845056, 338873319424, -700018655232, 4972270321664, 1679861874688, -3890432966656, -2663458013184, 1550567079936, 787332988928, -2719351832576, 715326881792, 3414208806912, 1713324818432, -543939264512, -164392599552, -3253091958784, -406105554944, 740187111424, 4597767733248, -1121660043264, 3061790277632, 3386457718784, -1539302490112, -2475225776128, -422415859712, 1595290419200, 760635588608, 1176719851520, -487740866560, 1966767079424, -1882576125952, -1389033816064, -2557311451136, 1267748831232, -504469848064, -1584506077184, 350878007296, -255261818880, -201704046592, -2706892914688, 1958765264896, 1904461873152, -2506687250432, 133601476608, -189749641216, 649455730688, -69450170368, 686773633024, 560753016832, -95042207744, -756448886784, -656375087104, -2902901391360, 856809734144, 1051464237056, 1869552025600, -132466974720, -755342311424, 1119678365696, -255820726272, 1220660428800, -2537277358080, 695562928128, 2343144259584, -1660841623552, 1637710430208, 4825816236032, 5309523820544, -1298780913664, 2520433819648, 1720858181632, -1645539098624, 1638404194304, 1999476097024, 1487871803392, -4222308581376, 5355157848064, 709429362688, -934599720960, 540091940864, -588361302016, 2911113314304, 2562775580672, -3065875005440, 2205081927680, -862585749504, 1058829238272, 2292592410624, 363541725184, 530793365504, -794574061568, -353699299328, -30230634496, -2778622853120, 4296064892928, 2162727845888, 1446810353664, -1153635844096, 1432972296192, 7420258816, -2948521263104, 463764422656, 3980841713664, 776197505024, 3135119556608, 1813764898816, -3288525963264, -2366395383808, -908499681280, -374733897728, 1194483908608, 1984815693824, -2159404646400, 3866752712704, -3991952687104, 153075826688, 884254441472, 1346932703232, 1182720196608, -2762026254336, 1432563482624, 1774670446592, -2228410646528, -1930619518976, -3048778760192, 2914393260032, 5090411806720, 2037921480704, 968180105216, -1382229606400, 1774351810560, -731409219584, 2634000891904, -911581708288, -3870666784768, 1079181115392, 2441769123840, -2630690537472, -3923421954048, 1237808054272, -4722480119808, -2291914244096, 235116658688, 1924137615360, 786251972608, -2532916068352, -1406282498048, 21267027968, 1600741703680, 862625792000, -2062565376000, -282511441920, 4097793064960, -3548080766976, -908626558976, -4822981410816, -2228567408640, 1373041065984, 615310098432, -1001191899136, -2567906787328, -1550378336256, 3980521897984, -47740522496, -779075256320, 665402867712, 1549804503040, 1182592663552, -284463300608, -1248463945728, 497556881408, -1503732039680, -570752827392, 1938559074304, -2226732400640, 362677633024, -650922950656, 205534527488, -684878725120, -4062655283200, -376172019712, 111687737344, -4030824972288, 2195907411968, 671861178368, 3011087958016, 1935816523776, -303607119872, -796566290432, -1137448976384, -4731797241856, 3529369714688, -2085702598656, 526949187584, 624182755328, -2249539452928, -2626830729216, -2531729604608, 1720239128576, 3248859906048, 3751348273152, 2087372718080, -1610479042560, -4853770223616, -174906097664, 1148410920960, 2085864996864, 2177267269632, -77011984384, -1148924329984, 1242514456576, 10995430400, -1679458172928, -1489092608000, 1103772254208, 2205051256832, -2222088781824, -661743075328, -2576669736960, -428400312320, 4872203141120, 1778685444096, 923532460032, -356064722944, -3132785164288, 1539821797376, -540352839680, -1048250023936, 21166661632, -3558377521152, 1051545632768, -1562754940928, -1406458134528, 2710035496960, 296264499200, -347182530560, -476087975936, 215669407744, 131891961856, -2019168092160, 361947856896, 3737233653760, 403044728832, 2937761300480, -3178331111424, -2581078212608, -890579320832, -1513501491200, 1309527638016, 1119343083520, 345426329600, 517040635904, 2946841968640, -1056865517568, -2787039248384, -1099382652928, 2303926730752, 3727123283968, 2233738199040, 2824251899904, 1039528296448, -627263995904, -4129800060928, 1372961243136, 2664289271808, -429683703808, -462064615424, 939318706176, -878445461504, -2944940113920, -4079906979840, -2453102657536, 3221789081600, -2281276964864, 2724304519168, 781793099776, -2766216888320, -1946275545088, -363002855424, -136407900160, 2637578371072, 2559670484992, -1351949090816, -1605485068288, -4922725629952, -3009563066368, 773131403264, 3622408552448, -2362758922240, -879850422272, -1023347523584, -12793731072, -1945215696896, -1406147624960, 1289828171776, 540388065280, -223773114368, -931498819584, -1383502577664, -2626969927680, 140348997632, 1530521190400, 591544778752, -1089831108608, -696020762624, 357122572288, 513641152512, 815834529792, -1854661066752, -735592775680, 1669418844160, -43204608000, -1171319291904, 1091952902144, -968091631616, -1618986401792, -1146375897088, 2183535919104, -1699956523008, -1542552289280, -2286495203328, -2450435866624, 2076036694016, 699686453248, 1812832583680, -4526029930496, -541106995200, -644282187776, 1138713559040, 87476953088, 1245261856768, -1443877093376, -4140950093824, 2899341213696, -1942414950400, -1183913082880, -764687417344, -2396381249536, -470723723264, -2740102627328, -1145311199232, 1019519303680, 764471607296, -1018849853440, -1870004879360, 1280185729024, -392698986496, 75141054464, -1737341403136, 288930856960, -1307000045568, 673801895936, 641022296064, 3541579333632, 2435278700544, 141376159744, -2168936071168, 1443443113984, -4067847045120, 602954399744, 30894792704, -152434294784, 2860638011392, 2441908322304, 1574895222784, -1698488778752, -658823053312, -1965279281152, 1015485562880, -1796708630528, -393006940160, -2203129217024, 3285862842368, -2718977490944, -2799371288576, 305221566464, 21337124864, -1355955044352, -3084242911232, 1649718984704, 369754603520, -3135912017920, 1326682341376, 1185533263872, 2857308520448, 265283551232, -339019792384, 682446028800, 501153300480, 2029457113088, 1286576799744, -1463905943552, 2368512720896, 2815385927680, 1447817641984, -1305719341056, 844131139584, -1828257267712, -3002795032576, -1735855308800, -286669045760, -693519777792, 524253102080, -3283844333568, -167714226176, 354439790592, 2633773350912, -181011070976, -885445099520, 2233518260224, 876791398400, 1722975125504, -504073650176, 2253687095296, -1134333526016, 688819404800, 1472591429632, 2979491741696, 963241181184, 1403607973888, -3915895275520, 1076450426880, -3448559108096, 88607784960, -249059508224, -1799808614400, 334355791872, 4323237691392, -67577745408, -2482800427008, 253146267648, -2667823497216, -1252092018688, -1679664742400, 2096160440320, 1755049885696, -335899066368, -3595446779904, 3797305262080, -1380028645376, -1380952178688, -1939168559104, 1085753065472, -2353217667072, -806799212544, 2818913075200, 2563087007744, -2461821042688, 162707079168, -1616755163136, 2573668188160, 2368429096960, 3180029804544, 130110693376, -3941212880896, 1531864809472, -1916404629504, 974708801536, -831060508672, 427282890752, -2143037685760, -242620039168, 499496321024, 1394729943040, -253932797952, 64265674752, -1980717203456, -2244853891072, 1103931113472, 124908240896, -859135934464, -3281281351680, 396433326080, 1421474660352, 202756079616, 269845512192, -3447283515392, 397784350720, -1834901176320, -111594921984, 764037103616, 2796578406400, -2244596727808, 2358545481728, 696232902656, 122406035456, -407211442176, 2604753223680, 428918308864, -759560601600, 2354944147456, 1690203586560, 1189989187584, -527382740992, -704313688064, 2410974806016, 537903857664, -1115823800320, 1246768922624, -1716338819072, 2147306569728, 2273292320768, -1328504242176, 310290513920, -1238561980416, -1344645365760, 178066604032, 270183710720, 1481798189056, 176566566912, -1299262996480, -1612517212160, -2644499496960, 84049158144, -1024002097152, 135693123584, 1920001507328, 730846396416, 2299884994560, -745052569600, 946734301184, 3888761798656, 274475401216, -823543660544, -2207133466624, 1127001882624, 2220072370176, 1263351496704, -2221516521472, -80192577536, -2001959649280, 1012266303488, -554916904960, -1025226768384, 492773081088, -3586684354560, -878291845120, 886884794368, -197275123712, 365944471552, 1026844196864, 540997058560, 19534014464, -1807423242240, 3535368093696, 316727132160, 579236855808, 1230512979968, -706440790016, 79526019072, -790013542400, 1164077301760, 120103903232, -126982463488, 2381304037376, 1806112784384, 771273129984, 1069396983808, -2191678111744, 2172163194880, 208312156160, 1627061485568, 555544543232, -657219256320, -1645885390848, -2368101679104, -1056624672768, 215914774528, 1055049711616, -935830159360, -876813680640, -727576150016, 806322765824, 947630637056, 181240332288, -93134610432, -2431650627584, -1669673254912, -3220833042432, -1450270523392, 996383916032, -386884108288, 1195037687808, -852215136256, 559900262400, -3032964136960, -1222024626176, 1430252814336, -898292514816, -1061372362752, 918088056832, -1563078688768, 369591549952, 951414685696, 1456734076928, -2978027143168, -275036930048, -1454682406912, -3241616080896, -653911392256, 4670032969728, 330356260864, -1499936456704, 59739242496, 2651898511360, -694358179840, -1363590643712, 1671366180864, 1045234647040, 282376110080, -2860600524800, -2159456026624, 1735973273600, -1827485384704, 2092827520, -1500799959040, -17280630784, -2058868621312, -1655440539648, -1824293519360, 1229723926528, 197814484992, -1760366559232, 1121044398080, -430279098368, 683274534912, -477315727360, -2078519984128, 1111029579776, -2310739853312, 1837021528064, 4244298792960, 1573775998976, 1747073761280, 1525059944448, 1176490868736, -273611784192, -607703465984, -1560741675008, 893828661248, -2604743524352, -1092300832768, 66500055040, -1300131741696, 1763249225728, -10918599680, 1534810783744, 511276515328, 836502487040, 1226787520512, 2172600451072, 1124136779776, 2233507250176, 3652135419904, 955876966400, 871274774528, 2055847149568, 120346550272, 1422636613632, -3684452532224, -97568751616, -1958231277568, -1549860208640, 562778537984, -1862016434176, -630762438656, 1565934616576, 834835447808, -1549624672256, -611641262080, 911328215040, 1060090347520, 984712216576, -809147760640, 1825895481344, 978002575360, 1994216308736, -406664577024, 806950141952, -818237472768, -1191167393792, -3236700094464, -4380712501248, -1967548792832, -205024722944, 97245069312, 1756833906688, 1743094022144, -527188656128, 1382428835840, 3563276206080, 1449906536448, -440961957888, 1377539457024, 141267222528, 2140977233920, -1228022874112, 592671801344, -730714341376, 572761440256, 564110753792, 820279902208, 251115552768, -877818019840, 19518162944, -3319610736640, -4089571966976, -1120178536448, 3327035179008, 1179910275072, -942567391232, 2153469575168, 3120546447360, 1663076794368, -726544613376, -3272443953152, -2381591347200, -1921925382144, -3987409731584, 1279216844800, 2880378241024, 3130554843136, 185516294144, 196407590912, -763979628544, 1800503820288, 3896452055040, 1695438602240, 1131150049280, 962397536256, 761434537984, -295305019392, -1282635202560, -2109513662464, -1673003532288, 1528024924160, 1181511843840, 695143235584, 1456981671936, -381808017408, 273588273152, -825504759808, -1174267363328, -609899249664, -616875229184, -4047154708480, -140576145408, -410501316608, -1630636867584, -392448278528, -1242532544512, 449510178816, -2811627044864, -3148188221440, -1609480011776, -1731049291776, 442358366208, -501941764096, 128728539136, -1328066723840, 1402725728256, 1533627072512, -726914039808, -1848397922304, -175113043968, 3098343374848, 4551842201600, 3360654884864, -798405230592, -2893047660544, -424371552256, -1665202388992, -3066412400640, 387742171136, -2199437967360, -1337853607936, 705556250624, -472568201216, -1889010581504, 1767658487808, 2359860658176, 938405855232, 1369690996736, 569947848704, 1451119083520, -372472905728, 1190699991040, 3702288023552, 1034263461888, 913406099456, 2322019385344, -1977084805120, -199165100032, 407038164992, 2027623284736, 1213285924864, 882778636288, -1831940390912, -1538477522944, -426902913024, 900727373824, -924786163712, -941610172416, 874703421440, 1014591979520, 1313600045056, 1190481231872, -2357756690432, 684890324992, -905709682688, -1200075440128, 104417959936, -1096278605824, 118277980160, 520204025856, 2085958320128], "output_dim": [4, 16, 16]}